%YAML:1.0
---
opencv_ml_svm:
   format: 3
   svmType: C_SVC
   kernel:
      type: LINEAR
   C: 1.0000000000000001e-01
   term_criteria: { iterations:100 }
   var_count: 48
   class_count: 8
   class_labels: !!opencv-matrix
      rows: 8
      cols: 1
      dt: i
      data: [ 0, 1, 2, 3, 4, 5, 6, 7 ]
   sv_total: 28
   support_vectors:
      - [ 4.37745184e-05, 5.62402529e-05, 2.09017435e-05, 2.09541395e-05,
          1.72186519e-05, 7.93300558e-07, -2.45219599e-05,
          -4.25258659e-05, -9.17158923e-06, -1.13872420e-05,
          -1.74305715e-05, -2.72980760e-05, -2.26130651e-05,
          -9.18897513e-06, -1.18868938e-05, -1.52368739e-05,
          1.48204081e-05, 3.73219737e-05, -8.57175019e-06,
          -3.34076794e-05, 8.92977823e-06, 6.25204393e-06,
          -6.63575202e-06, -1.30585950e-05, -1.21653393e-05,
          -4.67202926e-06, -2.49393020e-06, -2.30793646e-07,
          6.48549303e-08, -1.31634431e-06, -6.18989088e-06,
          -1.00254601e-05, -4.11604815e-05, 2.62967769e-05,
          -3.53908144e-05, -4.36292385e-06, 1.46486927e-05,
          7.86675446e-06, 5.02793182e-06, 4.35262791e-06, 2.76275773e-06,
          2.52028121e-06, 1.95115513e-06, 6.63553124e-07, 5.25084886e-07,
          -1.93111532e-06, -7.52176265e-06, -7.62702484e-06 ]
      - [ -1.91480490e-06, 6.67526729e-06, -5.81337508e-06,
          -4.71242856e-06, 6.39513118e-08, -2.27551560e-08,
          -1.89277091e-06, -4.98758197e-07, 3.78510833e-07,
          5.87787497e-07, 4.18273345e-07, 3.93613924e-08, 3.96358431e-08,
          -4.24064297e-07, -1.07727021e-06, 7.78448430e-06,
          1.65011406e-05, 2.01473085e-05, 9.79615925e-06, 1.13685119e-05,
          1.01794703e-05, 5.90759510e-06, 2.43697855e-06, 1.88836736e-07,
          -1.74587785e-06, -4.44112584e-06, -9.57646353e-06,
          -1.83085322e-05, -3.20327199e-05, -1.03789071e-05,
          -5.16724822e-06, 4.75591833e-06, 1.72650816e-05,
          2.01379044e-05, 1.18393900e-05, 1.18541639e-05, 8.51775530e-06,
          3.91377807e-06, 4.80991730e-07, 1.09559551e-06, 1.10886481e-06,
          6.66059066e-07, -6.49526328e-07, -1.89787272e-06,
          -3.31579236e-06, -6.98292979e-06, -1.74137585e-05,
          -4.69886618e-05 ]
      - [ 3.20634863e-05, 4.08243504e-05, 1.03638122e-05, 4.99898897e-06,
          4.76481364e-06, -1.58506446e-05, -2.47651769e-05,
          -6.98491931e-06, -6.34959497e-06, -1.21970925e-05,
          -1.44567784e-05, -9.52673327e-06, -3.71906140e-06,
          -1.11574345e-05, -1.88022113e-05, 1.61573666e-06,
          3.53719443e-05, 4.31489207e-05, 2.01512976e-05, 2.20753100e-05,
          1.59680931e-05, 1.75903801e-06, -3.84643863e-06,
          -8.90188585e-06, -2.02919455e-05, -2.62438407e-05,
          -2.37379481e-05, -1.18667467e-05, -1.37960333e-05,
          -2.46388154e-05, -2.96450617e-05, -4.68434473e-06,
          1.01888054e-05, -4.55862482e-06, 1.43982300e-06,
          1.91309919e-05, 1.02202612e-05, -6.19311731e-06,
          -1.27681842e-05, -9.06862260e-06, -4.15294517e-06,
          -1.17686426e-07, -6.78403751e-07, -1.31681702e-06,
          -2.11874817e-06, -4.58215573e-06, -2.18231453e-05,
          -2.77988829e-06 ]
      - [ -1.83589163e-05, 5.41206009e-06, -1.80230054e-05,
          -6.50248603e-06, 4.60666479e-06, 3.60671356e-06,
          5.27932627e-07, 7.33573188e-07, 1.19140191e-06, 1.33404740e-06,
          6.68564510e-08, 2.37143510e-07, -5.04321406e-07,
          -8.23654136e-06, -2.44250259e-06, 1.84864748e-05,
          2.09063201e-05, 2.41264552e-05, 6.36227878e-06, 8.03216244e-06,
          2.48012793e-06, -1.79987892e-05, -3.02727058e-05,
          -9.91143770e-06, -6.39616610e-06, -7.11555867e-06,
          -1.01204841e-05, -3.71093734e-06, -2.42133751e-06,
          -9.34492346e-06, -6.55048893e-07, 1.81751384e-05,
          2.72053712e-05, 3.16943770e-05, 1.74576253e-05, 1.75607383e-05,
          1.23267155e-05, 5.13785199e-06, 1.49457367e-06,
          -2.91787870e-07, -2.01798844e-06, -2.82827295e-06,
          -5.16126556e-06, -9.22493382e-06, -1.40267402e-05,
          -2.37545228e-05, -2.36040996e-05, -4.98325462e-05 ]
      - [ -1.87931005e-06, -3.16654496e-06, -3.45027229e-06,
          -3.38897706e-07, 6.66678886e-07, 4.54055510e-07,
          2.01788993e-07, 1.06242283e-07, 1.10735741e-07, 1.20960308e-07,
          1.15314371e-07, 9.97482417e-08, 9.87638202e-08, 7.96887250e-08,
          1.70935941e-08, 3.39098534e-07, -2.59844137e-06,
          -5.75355625e-06, -8.02753391e-07, 9.17989382e-07,
          7.71487692e-07, 3.39128320e-07, 8.10488032e-08, 1.76015220e-08,
          -2.31059989e-08, -3.35146777e-09, 3.85601666e-08,
          1.00670071e-07, 7.44878861e-08, 7.04217697e-08, 1.71353669e-08,
          3.27821283e-07, 1.41489409e-05, 9.17348461e-06, 2.47481012e-06,
          6.97203859e-07, -4.81767586e-07, -1.47924959e-06,
          -2.07646440e-06, -2.54708129e-06, -3.32977788e-06,
          -4.32260094e-06, -4.96715802e-06, -4.76364539e-06,
          -3.67956181e-06, -2.70779196e-06, -1.94499967e-06,
          -6.19197294e-07 ]
      - [ 1.33598642e-05, 1.84144501e-05, 8.08019195e-06, 6.78208016e-06,
          6.76512036e-06, 1.02319959e-07, -8.58677049e-06,
          -8.92180287e-06, -1.44837732e-05, -2.08624479e-05,
          -1.87216610e-05, -1.69419563e-05, -1.28815036e-05,
          -9.32574312e-06, -1.10401006e-05, -8.70146505e-06,
          -6.43422345e-06, 1.04823839e-05, -4.50854031e-07,
          -4.82326004e-06, -7.00603778e-06, -1.06418129e-05,
          -1.19954630e-05, -1.16527108e-05, -1.07839796e-05,
          -9.79048400e-06, -8.72628425e-06, -7.10943777e-06,
          -5.32484091e-06, -3.71529245e-06, -3.41874102e-06,
          1.44278383e-05, 1.97161535e-05, 2.34367508e-05, 1.14216418e-05,
          5.15446254e-06, -5.23736571e-06, -8.79578238e-06,
          -1.88550184e-05, -1.87318383e-05, -1.77309175e-05,
          -1.65913571e-05, -1.57812065e-05, -1.50484193e-05,
          -1.14118102e-05, -9.85993211e-06, -8.40046141e-06,
          9.75190051e-06 ]
      - [ 1.50330179e-05, 1.98777689e-05, 7.95864435e-06, 8.86001544e-06,
          1.04009232e-05, 7.85404427e-06, 4.16082185e-06, 2.02511842e-06,
          1.16759125e-07, -3.29901013e-06, -8.03109560e-06,
          -9.95038408e-06, -1.08271615e-05, -1.46819402e-05,
          -1.75750374e-05, -1.79231083e-05, 1.61527587e-05,
          2.00897666e-05, 9.43314808e-06, 1.12540583e-05, 1.00405859e-05,
          5.82430903e-06, 2.85682563e-06, 1.68066856e-06, 5.37209985e-07,
          -1.10262170e-06, -7.23308221e-06, -1.08380482e-05,
          -1.23325080e-05, -1.75071909e-05, -1.80898423e-05,
          -1.67666622e-05, 1.71623469e-05, 2.00942995e-05,
          1.15850062e-05, 1.20926552e-05, 8.97754489e-06, 4.36852815e-06,
          2.12428313e-06, 1.42372062e-06, 2.80961046e-07,
          -8.70575320e-07, -6.16538728e-06, -1.17080781e-05,
          -1.40347383e-05, -1.83903212e-05, -1.82767417e-05,
          -1.46641269e-05 ]
      - [ -1.60928030e-05, -1.20670065e-05, -1.21077564e-05,
          -1.10348947e-05, -1.13813276e-05, -1.00643103e-06,
          4.26947099e-06, 9.34107720e-06, 2.46286754e-06, 3.90980358e-06,
          8.88386785e-06, 1.46201146e-05, 1.28121328e-05, 1.30950220e-05,
          7.95412689e-06, 1.93529522e-05, 9.23336529e-07, 6.44146621e-06,
          1.14645227e-05, 1.61333301e-05, 6.51720711e-06, 4.58083105e-06,
          7.04158856e-06, 8.27089752e-06, 6.26648898e-06,
          -2.41006660e-07, -4.90480670e-06, -1.25650758e-05,
          -1.68722254e-05, -7.55438077e-06, -5.52258007e-06,
          1.30316230e-05, 2.66586248e-05, 1.14485283e-05, 1.69550585e-05,
          1.03195325e-05, 4.11780729e-06, 3.07821142e-06, 1.48172751e-06,
          1.87838111e-06, 2.43343925e-06, 4.47285083e-06, 8.68735970e-06,
          -1.35070479e-06, -3.07324990e-06, -5.63740605e-06,
          -1.28815327e-05, -3.55774100e-05 ]
      - [ -1.36398864e-06, -3.25937049e-06, -1.09068560e-05,
          -2.11020542e-05, -1.81270625e-05, -3.54712247e-05,
          -3.63947183e-05, 1.63990044e-05, -6.07692664e-06,
          -9.70716883e-06, 4.94555934e-06, 3.40178158e-05,
          3.86614920e-05, 8.93581182e-06, -6.83940607e-06,
          1.31997249e-05, 3.07277492e-06, 1.06446341e-05, 2.54531260e-05,
          4.54826222e-05, 8.25859024e-06, -4.10710618e-06,
          1.11896534e-05, 1.80141451e-05, 7.35347072e-08,
          -2.22347044e-05, -2.97014230e-05, -1.62806409e-05,
          -6.00492331e-06, -3.51012859e-05, -3.90992100e-05,
          -2.74915396e-06, 3.48968460e-05, -3.74010160e-05,
          3.65724190e-05, 2.15943037e-05, -2.33240235e-06,
          -1.36119043e-05, -2.12370887e-05, -1.59196570e-05,
          -6.55872327e-06, 2.77999084e-06, 9.28964255e-06,
          -2.71507497e-06, -4.04686762e-06, -3.89457455e-06,
          -2.46533509e-05, -5.85191128e-06 ]
      - [ -1.69889554e-05, -1.57494196e-05, -2.37948680e-05,
          -1.34823676e-05, -3.41614145e-06, 3.06978632e-06,
          8.99617771e-06, 1.38032519e-05, 3.82939425e-06, 5.57337080e-06,
          1.07739143e-05, 1.88612303e-05, 1.39776012e-05,
          -1.41616442e-06, 5.08228686e-06, 1.90196370e-05,
          -6.84232418e-07, 5.83380142e-06, 1.21274406e-05,
          1.72546188e-05, 1.25114934e-06, -1.53705041e-05,
          -1.92313819e-05, 6.47393290e-06, 8.83620305e-06,
          1.50038704e-06, -1.88204206e-06, -3.25806383e-07,
          1.07085236e-06, -8.68206371e-06, 3.79147309e-06,
          1.61749067e-05, 3.92439251e-05, 1.53642468e-05, 2.21293103e-05,
          1.32188889e-05, 4.80704830e-06, 2.80047175e-06, 1.18659534e-06,
          3.92798427e-07, 2.19559624e-07, 4.89780746e-07, 1.06084417e-06,
          -3.32013133e-06, -7.12814608e-06, -1.44739970e-05,
          -8.40757821e-06, -3.94448834e-05 ]
      - [ -8.32829937e-06, -2.59843746e-05, -2.48305187e-05,
          -6.30763680e-06, 1.67479197e-06, 4.85385544e-06,
          8.35704668e-06, 1.12781154e-05, 5.22516893e-06, 6.31681723e-06,
          6.94287291e-06, 8.71676548e-06, 7.64965716e-06, 5.04958098e-06,
          4.07105017e-06, 5.43042506e-06, -1.54325680e-05,
          -2.23722600e-05, 5.80754158e-06, 1.47470018e-05,
          5.33669527e-06, 2.77984532e-06, 3.38739414e-06, 3.92731954e-06,
          3.26761028e-06, 1.41738406e-06, 9.02715897e-07, 6.77305366e-07,
          1.26507393e-06, 4.28872738e-07, 9.24879714e-07, 3.05050480e-06,
          2.80958830e-05, 1.04068422e-05, 1.68601637e-05, 1.04448573e-05,
          3.20086428e-06, 8.00618523e-07, -3.14348540e-06,
          -5.10660220e-06, -9.49569949e-06, -1.41066103e-05,
          -1.13058568e-05, -1.29085029e-05, -6.93604761e-06,
          4.70066340e-07, 1.60409729e-06, 1.23473023e-06 ]
      - [ -3.53838391e-06, -3.42506814e-06, -1.29663874e-06,
          5.76520222e-07, 2.12433247e-06, 2.75151183e-06, 3.17864260e-06,
          1.11542777e-05, -1.23061482e-05, -2.08705878e-05,
          -1.31433189e-05, -3.73251623e-06, -2.29754669e-08,
          2.62540220e-06, -2.73202841e-06, -1.10034525e-05,
          -1.40979664e-05, -7.64518518e-06, 2.48764195e-06,
          7.65732784e-06, -1.50491542e-05, -1.84126748e-05,
          -1.15036210e-05, -5.99511804e-06, -6.27179634e-06,
          -6.41227962e-06, -1.67954818e-06, 2.01854436e-06,
          1.30375356e-05, -2.85464534e-06, -1.14063209e-06,
          1.62011384e-05, 5.08137055e-05, 2.01011298e-05, 3.41285086e-05,
          1.26487175e-05, -9.33908632e-06, -1.06803909e-05,
          -2.60668694e-05, -2.62788490e-05, -2.36229389e-05,
          -1.85123845e-05, -9.12950418e-06, -2.47891294e-05,
          -1.80691677e-05, -7.64193737e-06, -3.72283284e-06,
          1.05005984e-05 ]
      - [ -8.04558340e-07, -2.67467897e-08, 2.21167579e-06,
          3.66222707e-06, 4.25822554e-06, 6.88947966e-06, 1.00596808e-05,
          1.37769330e-05, 3.99533474e-06, 2.79018309e-06, 5.59308273e-06,
          1.57439717e-05, 1.07934175e-05, 6.38548454e-06,
          -1.36356093e-05, 1.47614619e-05, 3.55008638e-07,
          1.34698093e-05, 2.06209443e-05, 2.25537769e-05, 1.10184119e-05,
          8.80532207e-06, 1.50268706e-05, 2.00543927e-05, 1.73820299e-05,
          6.25279654e-06, -5.71183909e-06, -9.09565188e-06,
          -7.81585356e-07, -1.93101096e-05, -8.96961956e-06,
          -5.21631364e-06, 5.57710919e-05, 2.28001209e-05,
          2.60707347e-05, 1.62745855e-05, 8.35464652e-06, 6.16084890e-06,
          3.53891210e-06, 3.69016334e-06, 3.71439069e-06, 6.35091510e-06,
          6.43547310e-06, -1.62698598e-05, -2.11447004e-05,
          -1.97657064e-05, -5.75646163e-06, -9.77091258e-06 ]
      - [ 2.97938936e-06, 6.85978193e-06, 9.06577043e-06, 1.01954711e-05,
          1.49565421e-05, -7.32928766e-06, -1.00832358e-05,
          -1.23027064e-06, -4.39491896e-06, -9.62430568e-06,
          -1.12685302e-05, -6.60264641e-06, -3.16762134e-06,
          -2.06721706e-05, -2.72279322e-05, -2.40806385e-05,
          -4.47551940e-07, -2.77089129e-07, -6.19588320e-07,
          -1.28931981e-06, -2.22828044e-06, -4.48765695e-06,
          -6.30837667e-06, -1.36839471e-05, -2.01961702e-05,
          -1.86174475e-05, -9.61126170e-06, 1.60284253e-06,
          2.79542382e-05, 2.25186204e-06, -1.66478130e-05,
          -1.90190440e-05, -1.88642261e-05, -4.11075198e-05,
          -2.14442716e-05, -7.17033572e-06, -1.03015109e-05,
          -2.02090760e-05, -1.06799771e-05, -8.04728825e-06,
          -5.36819971e-06, -1.09304619e-06, 2.03224567e-06,
          2.70762894e-06, 3.01066666e-06, 3.48455478e-06, 4.94510505e-06,
          4.64806471e-05 ]
      - [ 8.23470054e-06, -2.27496857e-05, -2.29455727e-05,
          3.39463554e-06, 3.09102979e-05, 1.58037728e-05, 1.53877427e-05,
          6.23731330e-06, 5.29916178e-07, -1.29358898e-06,
          -3.28738679e-06, -1.73682247e-06, -3.59761520e-06,
          -1.86912857e-05, -1.02337954e-05, 3.43563471e-08,
          -3.40659017e-06, -4.95512768e-06, -5.69467420e-06,
          -8.08452387e-06, -1.46312004e-05, -4.00580611e-05,
          -5.36923180e-05, -1.98916896e-05, -2.95669142e-05,
          -1.41994678e-05, 1.07708192e-05, 4.09316090e-05,
          8.15717212e-05, 1.20609184e-05, 2.97039205e-05, 1.51385611e-05,
          -7.18867852e-07, -8.69597841e-07, -1.11905399e-06,
          -5.46307774e-07, -2.43311575e-07, -1.44783030e-06,
          4.44488023e-06, -7.75124647e-07, -2.51413303e-06,
          -1.52689563e-06, 1.92925268e-06, 1.00571617e-06,
          -2.27752639e-06, -9.16508816e-06, 2.26163847e-05,
          -1.27955136e-05 ]
      - [ 5.36271000e-06, -1.39322110e-05, -1.39021186e-05,
          1.37381232e-06, 4.82605446e-06, 2.58763203e-06, 1.35743142e-06,
          5.16907676e-07, 1.53607772e-07, 6.87789239e-08, 3.93158857e-08,
          6.03277783e-08, -4.24483559e-08, 7.74738211e-08,
          2.60561166e-07, -9.38345329e-06, -3.15620018e-05,
          -2.87216317e-05, -6.95853987e-06, -2.43739214e-06,
          -1.08069389e-06, -5.53932466e-07, 4.81192757e-08,
          8.33576792e-07, 1.90833316e-06, 3.62775540e-06, 6.88675073e-06,
          1.59485007e-05, 2.35726402e-05, 5.32191552e-06, 7.78435094e-07,
          -8.18745502e-06, 0., 0., -1.82240889e-10, -1.75289454e-08,
          -8.29426597e-07, -1.40020188e-06, -4.15215163e-06,
          -5.61790148e-06, -9.40747486e-06, -1.35413065e-05,
          -1.11178688e-05, -1.12937259e-05, -4.53256189e-06,
          5.26769827e-06, 1.42204099e-05, 2.18466048e-05 ]
      - [ 1.06306297e-05, 7.84581698e-06, 8.40031316e-06, 7.71280429e-06,
          4.87164152e-06, 2.11314273e-06, -1.49222421e-06,
          -4.04356433e-06, -8.05721174e-06, -1.17003474e-05,
          -9.88657303e-06, -8.53479105e-06, -6.63313995e-06,
          -4.36063328e-06, -4.35479842e-06, -1.13678161e-05,
          -8.20309742e-06, -6.28094676e-06, -7.17318471e-06,
          -9.54989537e-06, -9.16238150e-06, -8.56828410e-06,
          -6.95706467e-06, -4.87109310e-06, -2.61954074e-06,
          -2.03527023e-07, 3.64023504e-06, 1.05172985e-05,
          1.82064632e-05, 4.22805579e-06, 3.72424296e-07,
          -2.23221423e-06, -5.58846295e-07, -6.00939700e-07,
          -1.80925053e-06, -2.54520546e-06, -3.74016463e-06,
          -5.12902216e-06, -9.57643897e-06, -9.57786688e-06,
          -8.83694338e-06, -8.33349350e-06, -7.62637319e-06,
          -6.47860452e-06, -1.77097775e-06, 2.41538487e-06,
          9.29201542e-06, 2.60199758e-05 ]
      - [ 2.55903160e-05, 1.92531552e-05, 2.09753271e-05, 2.00745435e-05,
          3.12365046e-05, 6.87084639e-06, 2.26052498e-06, 9.57254997e-07,
          -4.38477429e-07, -2.69594352e-06, -9.24809683e-06,
          -1.12161115e-05, -1.49737343e-05, -1.84892579e-05,
          -3.35284640e-05, -1.94814675e-05, -8.53577490e-07,
          -5.10312418e-07, -2.95430510e-07, -3.46241592e-07,
          -4.45792040e-07, -3.72149088e-07, -2.93588784e-07,
          1.46008017e-06, 2.85940791e-06, 4.97898554e-06, 3.07900427e-06,
          1.59342271e-05, 2.60871057e-05, -1.01736659e-05,
          1.76571587e-06, -2.57268475e-05, -4.07069251e-07,
          -3.84583956e-07, -2.36011502e-07, -2.57527006e-07,
          -2.87734792e-07, -4.23985881e-07, -1.03979562e-06,
          -2.72500216e-07, -3.08229289e-07, -4.87381669e-07,
          -5.83088013e-06, -9.16962017e-06, -1.01766400e-05,
          -9.41208964e-06, 1.06543639e-05, 4.51866072e-05 ]
      - [ -2.24813266e-05, -1.78565697e-05, -2.10924845e-05,
          5.95209087e-07, 1.52883167e-05, 1.77974071e-05, 1.82243257e-05,
          6.23201777e-06, 5.56811756e-06, 9.29448015e-06, 9.12905398e-06,
          6.40285089e-06, 2.47248227e-06, 1.76490028e-06, 1.61494245e-05,
          1.42228510e-05, -2.58856880e-06, -3.97933309e-06,
          -4.38473671e-06, -3.80615188e-06, -3.85215753e-06,
          -1.34185784e-05, -2.14770589e-05, 9.77421587e-06,
          1.53847541e-05, 1.44982869e-05, 1.00505322e-05, 6.14427881e-06,
          6.92632102e-06, 6.53868392e-06, 2.62812100e-05, 1.96193578e-05,
          2.50760386e-05, 3.33705684e-05, 1.45793247e-05, 4.60964429e-06,
          8.51464301e-06, 1.84045275e-05, 1.43050038e-05, 7.29195563e-06,
          2.71124372e-06, -2.38103198e-07, -9.48416982e-07,
          -3.38379368e-06, -7.20545495e-06, -1.54313657e-05,
          1.81843814e-06, -4.17631964e-05 ]
      - [ -8.51287132e-06, -2.62431040e-05, -1.91861291e-05,
          -3.25453311e-06, 4.45761361e-06, 1.07385476e-05,
          1.14891709e-05, 4.14424085e-06, 3.28310966e-06, 4.97480823e-06,
          5.57028034e-06, 3.63504228e-06, 1.58940315e-06, 3.50110918e-06,
          5.27122666e-06, -5.98998724e-07, -3.12360025e-05,
          -2.57923148e-05, -7.02937723e-06, -1.20047105e-06,
          1.14498380e-06, 3.03528350e-06, 3.16976229e-06, 4.43410863e-06,
          7.96013137e-06, 9.78525804e-06, 8.62811794e-06, 4.47507500e-06,
          4.89102740e-06, 8.34091043e-06, 8.87042734e-06, 1.38199425e-06,
          8.01653641e-06, 1.63346722e-05, 8.25310053e-06, 2.37507084e-06,
          2.18729315e-06, 4.13295948e-06, 1.29899422e-06,
          -1.91400090e-06, -8.51102232e-06, -1.44709556e-05,
          -1.04154742e-05, -9.44520707e-06, -4.29546026e-06,
          1.44352998e-06, 6.64438676e-06, -7.75507431e-07 ]
      - [ -5.80076130e-06, -5.22445816e-06, 1.41095882e-06,
          7.11529583e-06, 4.92305298e-06, 1.87723363e-05, 1.34922884e-05,
          -6.18979266e-06, -1.65931542e-05, -2.23437928e-05,
          -1.51473914e-05, -1.58466828e-05, -1.47471592e-05,
          -1.27487908e-06, 9.40414429e-06, -8.44480564e-06,
          -2.46279978e-05, -1.85580884e-05, -2.11903152e-05,
          -2.58017171e-05, -2.10694234e-05, -1.42313256e-05,
          -1.35859818e-05, -1.25871484e-05, -4.38111385e-07,
          9.56386157e-06, 1.10669089e-05, 3.30193507e-06, 6.89535409e-06,
          1.88062168e-05, 2.66813968e-05, 1.92796397e-05, 2.70920591e-05,
          3.82394319e-05, 1.19517917e-05, -7.24697293e-06,
          -1.17411064e-05, -1.18866055e-05, -1.90649625e-05,
          -1.86910129e-05, -2.02450537e-05, -2.15806940e-05,
          -1.82445747e-05, -1.56166443e-05, -1.17939499e-05,
          -6.24988252e-06, 1.42365434e-05, 1.43468360e-05 ]
      - [ 2.44926332e-06, 2.51904680e-06, 8.23018399e-06, 1.59449337e-05,
          2.11345268e-05, 3.05722751e-05, 3.49105394e-05, 1.11585905e-05,
          6.38719803e-06, 5.23230347e-06, -1.78190783e-06,
          -9.06686546e-06, -1.32388577e-05, -1.11957988e-05,
          -1.34687707e-05, -1.36003837e-05, -7.27903227e-07,
          -2.69588838e-07, 6.40771873e-07, 1.99380565e-06,
          4.92732033e-06, 1.03072489e-05, 1.06081161e-05, 1.55963062e-05,
          2.22354647e-05, 2.42092265e-05, 1.24249764e-05,
          -3.59633123e-06, -7.21244351e-06, -6.37435232e-06,
          1.17642230e-06, -9.75276089e-06, 3.57153876e-05,
          4.27637278e-05, 2.15623713e-05, 7.03747628e-06, 1.00131629e-05,
          1.82639251e-05, 1.68407605e-05, 1.11211266e-05, 5.06592824e-06,
          1.81864721e-07, -8.35256924e-06, -1.85403951e-05,
          -2.23282168e-05, -2.60353881e-05, -1.62044598e-05,
          -9.18417413e-07 ]
      - [ 9.21801529e-06, -1.69015220e-05, -1.07328342e-05,
          1.76040771e-06, 4.84572365e-06, 4.60567935e-06, 3.49333391e-06,
          1.68254678e-06, 6.23892504e-07, 2.65858546e-07, 7.79521088e-07,
          4.18928863e-07, 8.68480640e-07, 4.91525043e-06, 1.11988936e-06,
          -1.34462434e-05, -4.79396040e-05, -2.84096532e-05,
          -3.26757072e-06, 3.50903406e-06, 7.55486826e-06,
          1.58022740e-05, 2.04133848e-05, 8.42065583e-06, 5.95350821e-06,
          6.28501994e-06, 7.85998873e-06, 3.28021929e-06, 1.80337122e-06,
          5.45745979e-06, 1.02833930e-07, -1.33088606e-05,
          2.59089148e-07, 2.47275658e-08, 2.36127647e-07, 3.53019061e-07,
          -7.72432486e-07, -1.45829222e-06, -5.02064904e-06,
          -6.25235134e-06, -1.06588777e-05, -1.54506997e-05,
          -1.05054705e-05, -8.02465911e-06, 8.97333337e-07,
          1.31699544e-05, 1.35187447e-05, 2.32013663e-05 ]
      - [ 3.56287492e-05, 1.52142784e-05, 1.63702771e-05, 1.01644255e-05,
          4.69183851e-06, 1.86905959e-06, -3.33385356e-06,
          -7.62761192e-06, -1.30591779e-05, -1.83872235e-05,
          -1.58238981e-05, -1.41996916e-05, -1.11803174e-05,
          -5.73670968e-06, -9.23231164e-06, -2.58110067e-05,
          -9.87404474e-06, -6.43592739e-06, -6.83116468e-06,
          -8.81622418e-06, -5.38716176e-06, 4.44378156e-06,
          1.04806804e-05, -1.57780698e-06, -4.36640767e-06,
          -3.27988346e-06, 7.83425833e-07, -3.77273386e-06,
          -3.83591259e-06, 1.83560132e-06, -2.65251788e-06,
          -1.16687795e-06, -1.30584385e-06, -2.99815088e-06,
          -5.62711693e-06, -7.53430959e-06, -8.30082263e-06,
          -1.05734598e-05, -1.54342270e-05, -1.42491754e-05,
          -1.25517536e-05, -1.12458756e-05, -9.02909142e-06,
          -5.76555249e-06, -2.00034904e-07, 8.20775585e-06,
          1.13018277e-05, 4.48526553e-05 ]
      - [ 9.63106322e-06, 2.06301193e-05, 4.31418121e-05, 2.59346507e-05,
          9.02347711e-06, 2.10371263e-06, -5.14882288e-07,
          -2.42841168e-07, -6.30643058e-07, -1.31368438e-06,
          -7.49824994e-06, -1.23078198e-05, -1.92465286e-05,
          -8.36226991e-06, -2.66800434e-05, -3.16276746e-05,
          -1.09924645e-06, -5.84671000e-07, 3.28438063e-07,
          2.22116296e-06, 8.79350227e-06, 3.69502704e-05, 5.33243292e-05,
          8.80589869e-06, -3.86164885e-07, -4.84370503e-07,
          -6.23072219e-06, -1.04128039e-05, -1.42465396e-05,
          -1.24788958e-05, -1.55891848e-05, -4.68708022e-05,
          -4.40887504e-07, -5.20148205e-07, -2.96979806e-07,
          -1.70162309e-07, -5.20412371e-08, -3.47390056e-07,
          -1.28116869e-06, -7.13828456e-07, -1.23140580e-06,
          -1.68272084e-06, -8.62639899e-06, -1.15077582e-05,
          -1.10643259e-05, -7.00750797e-06, 3.45809190e-06,
          4.35248294e-05 ]
      - [ 2.18184559e-05, 2.13003277e-05, 1.52455059e-05,
          -1.56681153e-07, -7.13653026e-06, -1.06407142e-05,
          -1.32710302e-05, -1.38319356e-05, -1.73314584e-05,
          -1.90639803e-05, -1.75015994e-05, -1.56324277e-05,
          -1.05979752e-05, -7.61646925e-06, -8.97017890e-06,
          -1.39314334e-05, 1.69503455e-05, 1.32041587e-05,
          -1.00134894e-05, -1.43772186e-05, -1.58907369e-05,
          -1.52786615e-05, -1.45085478e-05, -1.29444179e-05,
          -1.17488235e-05, -9.88400916e-06, -9.87757085e-06,
          -9.87755084e-06, -7.12028213e-06, -4.24678228e-06,
          -2.57476586e-06, 1.08702279e-05, -1.26900966e-06,
          -5.43576971e-06, -1.50195283e-05, -1.64612266e-05,
          -1.37892921e-05, -1.18060661e-05, -1.26876348e-05,
          -9.76680803e-06, -2.72825309e-06, 4.01502803e-06,
          -4.99223870e-06, -3.75633476e-06, -3.20720915e-06,
          -6.36711093e-06, -5.12513770e-06, 1.10784677e-05 ]
      - [ 6.04556635e-06, 2.22436847e-05, 3.23960157e-05, 8.56285351e-06,
          6.48862738e-07, 2.74937317e-08, -1.51592872e-07,
          -3.39734896e-07, -9.82495862e-07, -2.97266661e-06,
          -6.50294260e-06, -7.89164278e-06, -8.90622596e-06,
          -1.03430120e-05, -7.17424291e-06, -4.28029489e-06,
          3.10883879e-05, 3.42521598e-05, 4.01936541e-06, 9.24924223e-07,
          7.08156307e-08, -1.23404931e-07, -2.42545411e-07,
          -2.62573622e-07, -5.35718186e-07, -1.29924376e-06,
          -5.76353614e-06, -8.30387307e-06, -9.48421530e-06,
          -1.24019489e-05, -6.70468899e-06, -4.85427836e-06,
          -3.34027675e-07, -3.54316057e-07, -2.96871036e-07,
          -2.12318611e-07, 3.13168300e-07, 4.32560938e-07,
          2.06787831e-06, 3.95820734e-06, 7.39339202e-06, 1.17969130e-05,
          9.45951342e-06, 9.33961201e-06, -4.01838662e-07,
          -1.28893134e-05, -7.26107055e-06, -2.63186348e-06 ]
      - [ 1.72875059e-06, 2.65482777e-06, 2.79098981e-06, 2.38758980e-06,
          2.75341063e-06, 3.64723383e-06, 6.95170229e-06, 8.34307684e-06,
          1.00378020e-05, 7.97978646e-06, -2.54070301e-06,
          -5.19632249e-06, 3.54503584e-07, 4.45356864e-06,
          -7.52196547e-06, 4.70121768e-06, 1.48799663e-05,
          1.06132620e-05, 1.17809641e-05, 1.43336338e-05, 1.34952497e-05,
          1.26985196e-05, 1.12163689e-05, 1.05561103e-05, 1.53798992e-05,
          9.24062988e-06, -1.02457007e-05, -1.72708733e-05,
          -1.59016909e-05, -1.86151065e-05, -1.46797893e-05,
          -3.95597272e-06, 8.48714080e-07, 2.20681886e-06,
          4.85538931e-06, 6.30361683e-06, 6.85639407e-06, 9.73636634e-06,
          1.59471692e-05, 1.54148456e-05, 1.32009127e-05, 1.01557252e-05,
          4.91340984e-07, -5.87346585e-06, -6.01389092e-06,
          -1.63847581e-05, -1.23562686e-05, -1.86344198e-06 ]
   uncompressed_sv_total: 56
   uncompressed_support_vectors:
      - [ 4717., 6149., 2596., 2857., 3229., 2461., 1392., 817., 555.,
          437., 354., 270., 296., 244., 228., 23644., 5076., 6199.,
          3015., 3502., 3148., 1874., 1000., 678., 470., 414., 306.,
          289., 220., 221., 204., 23630., 5311., 6195., 3650., 3724.,
          2771., 1449., 835., 643., 449., 394., 330., 248., 221., 199.,
          227., 23600. ]
      - [ 90000., 0., 0., 0., 0., 0., 0., 0., 0., 0., 0., 0., 0., 0., 0.,
          0., 90000., 0., 0., 0., 0., 0., 0., 0., 0., 0., 0., 0., 0., 0.,
          0., 0., 90000., 0., 0., 0., 0., 0., 0., 0., 0., 0., 0., 0., 0.,
          0., 0., 0. ]
      - [ 904., 10403., 28127., 10135., 847., 139., 43., 19., 5., 2., 0.,
          1., 0., 0., 0., 0., 1190., 12126., 28346., 8139., 641., 123.,
          37., 17., 4., 1., 0., 1., 0., 0., 0., 0., 1190., 12124.,
          28345., 8142., 641., 123., 37., 17., 4., 1., 0., 1., 0., 0.,
          0., 0. ]
      - [ 49812., 710938., 0., 0., 0., 0., 0., 0., 0., 0., 0., 0., 0.,
          0., 0., 0., 49812., 710938., 0., 0., 0., 0., 0., 0., 0., 0.,
          0., 0., 0., 0., 0., 0., 49812., 710938., 0., 0., 0., 0., 0.,
          0., 0., 0., 0., 0., 0., 0., 0., 0. ]
      - [ 115672., 293101., 298749., 30282., 6231., 2767., 1734., 951.,
          688., 743., 2272., 705., 578., 705., 997., 323825., 129541.,
          357989., 228813., 22776., 5364., 2501., 1710., 893., 646.,
          714., 2259., 705., 570., 714., 1015., 323790., 135709.,
          368989., 214263., 20717., 5068., 2424., 1602., 893., 592.,
          707., 2247., 707., 571., 714., 1019., 323778. ]
      - [ 256225., 1955636., 1110683., 543937., 157343., 44835., 15262.,
          6606., 2842., 1307., 596., 265., 154., 102., 150., 57.,
          256225., 1955636., 1110683., 543937., 157343., 44835., 15262.,
          6606., 2842., 1307., 596., 265., 154., 102., 150., 57.,
          256225., 1955636., 1110683., 543937., 157343., 44835., 15262.,
          6606., 2842., 1307., 596., 265., 154., 102., 150., 57. ]
      - [ 66344., 77801., 70484., 57965., 29037., 3600., 2071., 3471.,
          4116., 7683., 15563., 39519., 30944., 43606., 42939., 13433.,
          73164., 79609., 69650., 57359., 24162., 1794., 1654., 3156.,
          4628., 7680., 17022., 39251., 32183., 43338., 40857., 13069.,
          75329., 82644., 72247., 54689., 19401., 1297., 1279., 3054.,
          3755., 6850., 13588., 37312., 36135., 42779., 43542., 14675. ]
      - [ 27., 10213., 32692., 51423., 100337., 27608., 7691., 307.,
          155., 156., 147., 165., 187., 215., 378., 128299., 35492.,
          188664., 5503., 213., 172., 156., 130., 134., 171., 131., 150.,
          198., 190., 221., 435., 128040., 226234., 3296., 251., 186.,
          160., 140., 125., 163., 147., 132., 161., 192., 207., 257.,
          788., 127561. ]
      - [ 0., 0., 0., 0., 0., 0., 19., 71., 195., 1814., 11071., 20104.,
          30328., 98848., 41306., 156244., 0., 0., 0., 6., 71., 110.,
          492., 4849., 12028., 15500., 21977., 41103., 105548., 1567.,
          864., 155885., 0., 39., 78., 191., 2795., 10863., 14623.,
          16172., 19194., 43040., 93442., 2005., 659., 666., 881.,
          155352. ]
      - [ 5., 69., 231., 526., 1801., 4059., 7337., 9918., 1540., 572.,
          210., 145., 132., 139., 159., 23782., 683., 2106., 6193.,
          12697., 3070., 878., 326., 192., 120., 102., 111., 120., 117.,
          111., 201., 23598., 1419., 3690., 11621., 6968., 1524., 549.,
          264., 145., 106., 105., 114., 122., 111., 127., 232., 23528. ]
      - [ 0., 0., 124., 27., 111., 193., 216., 303., 537., 1648., 4221.,
          7123., 5212., 1299., 2470., 26852., 136., 79., 228., 399.,
          1026., 1795., 4218., 5496., 4574., 1611., 837., 284., 294.,
          828., 2166., 26365., 15287., 2065., 1047., 613., 464., 537.,
          214., 108., 126., 81., 90., 260., 259., 947., 2600., 25638. ]
      - [ 0., 0., 0., 0., 0., 0., 0., 0., 0., 22., 1178., 3957., 16686.,
          15405., 10747., 2330., 0., 0., 0., 0., 0., 16., 828., 2010.,
          6040., 17244., 12877., 8561., 2240., 402., 107., 0., 21.,
          9820., 37476., 2549., 369., 90., 0., 0., 0., 0., 0., 0., 0.,
          0., 0., 0. ]
      - [ 0., 0., 0., 0., 0., 0., 0., 0., 7215., 11090., 8027., 6719.,
          6028., 4385., 4378., 2783., 50625., 0., 0., 0., 0., 0., 0., 0.,
          0., 0., 0., 0., 0., 0., 0., 0., 50625., 0., 0., 0., 0., 0., 0.,
          0., 0., 0., 0., 0., 0., 0., 0., 0. ]
      - [ 0., 498., 1626., 3111., 2132., 2086., 2018., 2182., 2320.,
          2553., 3077., 3845., 4372., 3790., 2585., 54540., 43., 9489.,
          11003., 6140., 4128., 2180., 1318., 950., 747., 652., 449.,
          328., 264., 212., 259., 52573., 2107., 10051., 8115., 5533.,
          4151., 2290., 1457., 1087., 933., 705., 516., 403., 295., 229.,
          277., 52586. ]
      - [ 1963., 2108., 2869., 4418., 5066., 5304., 5135., 2647., 1151.,
          620., 566., 634., 793., 901., 827., 15398., 0., 5., 3., 15.,
          34., 124., 429., 983., 1232., 2089., 3722., 3098., 9451.,
          6032., 5483., 17700., 0., 1., 29., 280., 545., 883., 2475.,
          1077., 254., 341., 890., 996., 909., 873., 2172., 38675. ]
      - [ 23342., 8648., 7475., 4222., 2346., 1665., 1229., 843., 616.,
          496., 431., 512., 721., 1158., 1740., 75600., 8., 15., 95.,
          184., 375., 1296., 2730., 2326., 2813., 5823., 9454., 11545.,
          9149., 4563., 2767., 77901., 0., 7., 30., 85., 115., 86., 181.,
          367., 391., 670., 2456., 2736., 3009., 5651., 12272., 102988. ]
      - [ 6585., 4856., 4964., 4264., 2499., 1383., 765., 329., 166.,
          117., 95., 114., 89., 173., 457., 23488., 0., 0., 1., 1., 10.,
          31., 182., 481., 921., 1662., 3072., 7001., 10312., 2412.,
          382., 23876., 0., 0., 0., 0., 0., 1., 3., 11., 52., 131., 392.,
          769., 1368., 2911., 6889., 37817. ]
      - [ 976., 1097., 1779., 3043., 15402., 1368., 123., 73., 85., 61.,
          70., 58., 81., 74., 125., 67635., 0., 0., 0., 0., 0., 0., 0.,
          0., 0., 6., 96., 662., 1289., 1974., 14337., 73686., 0., 0.,
          0., 0., 0., 0., 0., 0., 0., 0., 18., 117., 693., 1233., 2418.,
          87571. ]
      - [ 207., 1107., 4558., 7851., 5123., 1889., 557., 401., 559.,
          1345., 1317., 1407., 2285., 8358., 13314., 47., 2., 114., 428.,
          1317., 3769., 6856., 5179., 3079., 987., 1262., 1385., 1491.,
          2001., 5160., 15056., 2239., 16904., 2413., 867., 489., 383.,
          290., 270., 238., 245., 461., 1481., 1511., 1821., 3161.,
          13576., 6215. ]
      - [ 0., 9., 252., 966., 2646., 11524., 46137., 9261., 1980., 1289.,
          768., 527., 1417., 4865., 734., 167625., 0., 0., 0., 28., 178.,
          436., 750., 1270., 3609., 8280., 25998., 28063., 4733., 2753.,
          5296., 168606., 62675., 5795., 2153., 1406., 1015., 789., 481.,
          453., 316., 263., 312., 307., 407., 1087., 5722., 166819. ]
      - [ 1679., 1478., 5221., 16171., 33324., 7209., 1250., 601., 495.,
          445., 390., 378., 384., 432., 1125., 102818., 879., 516., 573.,
          1016., 2375., 6594., 11550., 26216., 14904., 2404., 591., 503.,
          401., 381., 456., 104041., 1373., 720., 1546., 4861., 12914.,
          29902., 13017., 2089., 647., 524., 465., 373., 389., 404.,
          650., 103526. ]
      - [ 60., 73., 54., 72., 572., 5348., 6210., 2230., 1735., 2466.,
          2787., 1740., 469., 212., 301., 26059., 0., 4., 47., 75., 57.,
          60., 185., 621., 3487., 4981., 4421., 2172., 2313., 3512.,
          1861., 26592., 595., 8251., 4191., 960., 1058., 1684., 2831.,
          2369., 1264., 393., 153., 161., 194., 276., 813., 25195. ]
      - [ 580., 3116., 19695., 58330., 18254., 2045., 1076., 970., 855.,
          862., 863., 905., 1104., 1411., 2785., 223549., 580., 0., 0.,
          3258., 5886., 20425., 37245., 32239., 3699., 1025., 974., 928.,
          952., 1196., 1579., 226414., 6949., 83582., 8767., 1899.,
          1253., 915., 887., 767., 851., 804., 840., 1036., 1221., 1920.,
          5062., 219647. ]
      - [ 26330., 12311., 9578., 7808., 6275., 4869., 4113., 3132.,
          2583., 2331., 2502., 3193., 11854., 71136., 87849., 4536., 0.,
          4., 257., 1086., 1423., 1637., 2145., 3588., 6852., 12437.,
          16691., 15090., 11753., 22940., 137279., 27218., 43610.,
          12650., 6786., 4564., 3211., 2367., 1765., 1333., 1205., 1157.,
          1259., 1448., 2045., 3316., 13822., 159862. ]
      - [ 7897., 11693., 7095., 4167., 2990., 2419., 1605., 1282., 1253.,
          1169., 1061., 985., 1270., 1932., 3472., 39710., 0., 0., 32.,
          262., 398., 518., 981., 4816., 12103., 9970., 6106., 3937.,
          3039., 3092., 3429., 41317., 1., 8., 32., 83., 279., 1100.,
          1135., 1051., 561., 419., 381., 430., 486., 823., 2050.,
          81161. ]
      - [ 22178., 9895., 6314., 5263., 4638., 4662., 3709., 1877., 759.,
          276., 122., 7., 0., 0., 0., 0., 3651., 5235., 5454., 5450.,
          5693., 5651., 5309., 5074., 4835., 4952., 5659., 2221., 438.,
          69., 9., 0., 772., 923., 1237., 1356., 1382., 1431., 1644.,
          2091., 2514., 2757., 3660., 5125., 6052., 6918., 8407., 13431. ]
      - [ 0., 0., 7700., 1236454., 6., 0., 0., 0., 0., 0., 0., 0., 0.,
          0., 0., 0., 0., 0., 0., 0., 0., 29297., 142702., 171597.,
          178090., 195336., 184867., 137500., 104403., 68899., 31447.,
          22., 0., 0., 0., 0., 0., 0., 0., 0., 0., 0., 0., 0., 0., 0.,
          381535., 862625. ]
      - [ 1387., 2860., 5773., 3492., 1284., 411., 134., 106., 129.,
          147., 447., 331., 577., 2629., 1010., 29908., 4., 19., 92.,
          355., 1243., 5016., 7266., 1296., 135., 194., 522., 383., 782.,
          2867., 478., 29973., 0., 0., 2., 26., 44., 43., 35., 28., 13.,
          38., 152., 446., 1283., 3513., 2798., 42204. ]
      - [ 2264., 25300., 105851., 96908., 60328., 33480., 505., 203.,
          52., 8., 1., 0., 0., 0., 0., 0., 1480., 316., 83376., 66640.,
          54679., 54168., 33417., 22824., 7223., 529., 212., 36., 0., 0.,
          0., 0., 1241., 181., 82816., 63998., 46024., 32085., 312.,
          311., 329., 372., 558., 1084., 1929., 5000., 74250., 14410. ]
      - [ 20464., 91676., 29881., 2727., 698., 234., 175., 179., 162.,
          172., 182., 180., 230., 327., 783., 211930., 143113., 1892.,
          315., 235., 190., 174., 148., 163., 160., 175., 187., 202.,
          275., 466., 1225., 211080., 0., 0., 409., 1833., 3166., 5254.,
          11673., 19098., 22000., 44985., 30007., 7174., 652., 234.,
          390., 213125. ]
      - [ 1443., 6378., 15500., 3530., 172., 109., 98., 85., 94., 88.,
          79., 84., 104., 145., 355., 35976., 11166., 15269., 419., 150.,
          108., 96., 84., 89., 80., 84., 72., 95., 100., 169., 370.,
          35889., 0., 0., 0., 0., 0., 0., 17., 799., 1814., 3671., 6119.,
          9361., 5648., 100., 128., 36583. ]
      - [ 4700., 13530., 6728., 3323., 822., 286., 175., 88., 83., 71.,
          65., 80., 97., 115., 298., 20164., 14240., 9395., 4203., 1105.,
          361., 196., 108., 74., 70., 65., 78., 79., 102., 100., 255.,
          20194., 0., 0., 0., 9., 611., 981., 3069., 3603., 5839., 7739.,
          4336., 2492., 1001., 183., 174., 20588. ]
      - [ 21477., 8490., 5153., 4323., 3543., 2816., 2030., 1293., 689.,
          313., 141., 43., 9., 5., 0., 0., 31720., 5590., 3730., 3000.,
          2157., 1593., 1012., 582., 327., 210., 138., 66., 56., 62.,
          54., 28., 1480., 2364., 2753., 2881., 3103., 3174., 3316.,
          3442., 3359., 3276., 3257., 3142., 3203., 3078., 2924., 5573. ]
      - [ 39304., 23419., 19167., 12760., 6652., 3056., 1455., 761.,
          522., 394., 327., 294., 364., 511., 965., 73233., 34045.,
          21133., 19100., 14395., 8771., 4571., 2442., 1489., 724., 576.,
          415., 326., 337., 456., 823., 73581., 0., 0., 3., 99., 785.,
          2426., 3544., 3731., 3704., 3867., 4872., 7094., 12068.,
          19128., 23281., 98582. ]
      - [ 25232., 79813., 110112., 36324., 2460., 481., 298., 215., 248.,
          241., 225., 244., 289., 375., 1205., 102238., 71130., 112209.,
          66380., 3859., 606., 325., 264., 199., 240., 222., 225., 243.,
          272., 348., 752., 102726., 0., 0., 0., 0., 0., 8., 93., 229.,
          8011., 15717., 27762., 39731., 67955., 61361., 33762., 105371. ]
      - [ 23515., 36811., 32183., 21870., 16783., 11941., 6923., 3101.,
          1343., 744., 542., 556., 647., 931., 1815., 295., 60468.,
          27495., 19287., 15772., 12518., 8694., 5146., 3037., 1606.,
          950., 650., 674., 639., 981., 1746., 337., 1656., 3238., 4297.,
          5005., 5044., 5247., 5729., 6670., 9082., 12527., 16608.,
          20272., 21163., 17171., 13602., 12689. ]
      - [ 46305., 29709., 10497., 3452., 1618., 1102., 711., 428., 151.,
          24., 3., 0., 0., 0., 0., 0., 44000., 32506., 9382., 3099.,
          1443., 967., 780., 632., 542., 425., 213., 11., 0., 0., 0., 0.,
          430., 1664., 3459., 4431., 5210., 6461., 7558., 8530., 10092.,
          12091., 12756., 10359., 5961., 3021., 1410., 567. ]
      - [ 43196., 62426., 6315., 2076., 1130., 504., 255., 178., 207.,
          200., 197., 203., 267., 510., 1576., 136760., 4450., 102936.,
          5773., 1591., 689., 288., 213., 173., 207., 199., 182., 209.,
          232., 394., 1307., 137157., 0., 0., 0., 0., 0., 0., 0., 0.,
          10., 94., 351., 784., 6994., 37190., 48079., 162498. ]
      - [ 4241., 5094., 4267., 3843., 3523., 3717., 3742., 3429., 3356.,
          3183., 2761., 2117., 1734., 1633., 2361., 8833., 3875., 4912.,
          5079., 5043., 4382., 3732., 3779., 3908., 4215., 4681., 4745.,
          4029., 2767., 1561., 758., 368., 1301., 2464., 3517., 4356.,
          4503., 4082., 3282., 3280., 3459., 3422., 3736., 3880., 4591.,
          5430., 4194., 2337. ]
      - [ 0., 0., 0., 0., 0., 0., 0., 0., 0., 0., 0., 0., 0., 0., 0.,
          640000., 640000., 0., 0., 0., 0., 0., 0., 0., 0., 0., 0., 0.,
          0., 0., 0., 0., 0., 0., 0., 0., 0., 0., 0., 0., 0., 0.,
          640000., 0., 0., 0., 0., 0. ]
      - [ 0., 0., 0., 0., 0., 0., 0., 0., 18., 1652., 6653., 9269.,
          10175., 12062., 20381., 170190., 21439., 16246., 11955.,
          11858., 11947., 9951., 5168., 2543., 1754., 1669., 1509.,
          1236., 1206., 1066., 1052., 129801., 0., 0., 0., 0., 0., 261.,
          5586., 10475., 13159., 15037., 18336., 22034., 9169., 2427.,
          2277., 131639. ]
      - [ 159., 103., 74., 114., 181., 523., 1932., 2637., 4436., 6628.,
          5348., 4574., 3363., 1880., 1344., 17329., 2160., 1874., 2718.,
          4052., 4051., 3928., 3521., 3068., 2336., 1748., 1116., 778.,
          690., 784., 1077., 16724., 258., 201., 886., 1255., 1565.,
          3064., 5750., 5009., 4093., 3531., 2704., 1797., 1276., 1007.,
          1134., 17095. ]
      - [ 443., 1475., 2619., 3331., 3428., 3149., 3636., 4285., 3961.,
          4534., 3420., 2578., 8868., 38597., 2873., 38303., 14985.,
          5484., 4597., 3843., 3908., 3456., 3258., 5104., 22801.,
          16859., 1013., 627., 455., 409., 644., 38057., 164., 2547.,
          3795., 4377., 4137., 4277., 4188., 3983., 3280., 2358., 3126.,
          16544., 28377., 3426., 1832., 39089. ]
      - [ 5930., 34625., 35825., 26537., 21643., 21126., 16732., 11673.,
          8163., 5045., 8669., 10701., 3155., 542., 129., 17., 84294.,
          30253., 19755., 4896., 7884., 7255., 6921., 7641., 8131.,
          3946., 6405., 10394., 7486., 3396., 1705., 150., 1703., 11879.,
          33055., 32314., 22319., 18641., 19822., 16410., 11536., 6366.,
          4273., 7949., 8628., 3773., 3383., 8461. ]
      - [ 0., 29., 305., 1969., 22756., 150798., 190868., 3442., 514.,
          665., 442., 352., 325., 288., 403., 266844., 368420., 551.,
          349., 338., 291., 256., 385., 427., 471., 614., 382., 264.,
          276., 349., 638., 265989., 11., 206., 2328., 47239., 314373.,
          5532., 323., 379., 501., 604., 433., 402., 294., 285., 380.,
          266710. ]
      - [ 0., 0., 11., 143., 505., 1332., 3259., 8572., 13060., 9833.,
          4586., 703., 158., 144., 225., 7733., 1956., 4225., 5786.,
          8679., 5506., 5773., 6413., 2848., 627., 184., 122., 110.,
          154., 303., 257., 7321., 0., 0., 11., 49., 86., 153., 345.,
          873., 2107., 5054., 12374., 16528., 4375., 421., 273., 7615. ]
      - [ 0., 0., 0., 0., 0., 0., 0., 0., 0., 0., 0., 0., 990., 0., 990.,
          1263240., 990., 0., 990., 0., 0., 0., 0., 0., 0., 0., 0., 990.,
          0., 0., 0., 1262250., 1980., 0., 0., 0., 0., 0., 0., 990., 0.,
          0., 0., 0., 990., 0., 0., 1261260. ]
      - [ 998., 295., 447., 1730., 822., 291., 281., 815., 4495., 18652.,
          26140., 24664., 5607., 680., 757., 26., 754., 310., 255., 442.,
          1713., 864., 291., 262., 606., 4516., 21421., 31233., 21553.,
          1215., 717., 548., 505., 400., 295., 240., 470., 1211., 1340.,
          258., 324., 1660., 11564., 30346., 31506., 5042., 656., 883. ]
      - [ 2., 3., 2., 1., 2., 89., 120., 139., 455., 2165., 4406., 5069.,
          3793., 2320., 1741., 69094., 2., 3., 2., 1., 2., 89., 120.,
          135., 296., 1830., 4700., 5199., 3778., 2376., 1737., 69131.,
          2., 3., 2., 1., 2., 89., 120., 137., 299., 1929., 4699., 5154.,
          3702., 2385., 1747., 69130. ]
      - [ 0., 0., 0., 0., 0., 0., 0., 0., 0., 0., 21., 2232., 2312.,
          11454., 30719., 3887., 0., 0., 0., 0., 0., 0., 0., 0., 0., 0.,
          10., 1878., 2477., 10079., 30287., 5894., 0., 0., 0., 0., 0.,
          0., 0., 0., 0., 0., 6., 1696., 2438., 4800., 33780., 7905. ]
      - [ 0., 0., 0., 0., 4., 25., 327., 2., 0., 31., 418., 240., 615.,
          420., 16675., 31868., 0., 0., 0., 0., 3., 7., 346., 2., 0., 6.,
          443., 68., 709., 291., 6566., 42184., 0., 0., 0., 0., 2., 6.,
          346., 4., 0., 6., 443., 49., 719., 245., 5395., 43410. ]
      - [ 260., 272., 383., 224., 84., 89., 150., 236., 374., 671., 983.,
          1522., 2669., 3832., 9299., 29577., 281., 296., 377., 196.,
          80., 87., 157., 235., 403., 738., 1023., 1752., 2535., 4005.,
          9099., 29361., 307., 322., 368., 171., 82., 107., 169., 366.,
          597., 819., 1432., 2069., 2641., 4279., 9274., 27622. ]
      - [ 0., 0., 2., 40., 88., 140., 212., 346., 874., 2233., 4047.,
          3674., 2473., 9545., 20106., 6620., 0., 0., 0., 3., 22., 82.,
          122., 242., 457., 1631., 3739., 3869., 3493., 11290., 23040.,
          2410., 0., 0., 0., 1., 19., 40., 118., 220., 510., 1760.,
          3915., 3719., 3260., 11204., 23125., 2509. ]
      - [ 171., 197., 95., 90., 102., 122., 129., 116., 222., 342.,
          1899., 2661., 4236., 4907., 339., 34662., 228., 147., 74., 93.,
          89., 119., 130., 108., 179., 259., 1747., 2422., 3500., 6166.,
          331., 34698., 89., 105., 63., 74., 77., 96., 136., 87., 147.,
          246., 1661., 2716., 3595., 6098., 339., 34761. ]
      - [ 0., 0., 0., 0., 155., 337., 373., 437., 474., 641., 788.,
          1115., 1518., 2708., 6149., 35573., 0., 0., 0., 0., 142., 322.,
          379., 419., 487., 617., 802., 1070., 1563., 2632., 6248.,
          35587., 0., 0., 0., 0., 0., 176., 331., 458., 564., 696., 827.,
          1210., 1674., 2630., 6318., 35384. ]
      - [ 0., 0., 0., 0., 0., 0., 0., 0., 0., 0., 0., 3., 420., 9080.,
          28166., 12731., 0., 0., 0., 0., 0., 0., 0., 0., 0., 0., 0., 0.,
          140., 5905., 30793., 13562., 0., 0., 0., 0., 0., 0., 0., 0.,
          0., 0., 0., 0., 123., 5068., 31518., 13691. ]
   decision_functions:
      -
         sv_count: 1
         rho: -1.1038152763813571e+00
         alpha: [ 1. ]
         index: [ 0 ]
      -
         sv_count: 1
         rho: -1.1810442299392145e+00
         alpha: [ 1. ]
         index: [ 1 ]
      -
         sv_count: 1
         rho: -1.0350572979641801e-01
         alpha: [ 1. ]
         index: [ 2 ]
      -
         sv_count: 1
         rho: -6.8381941362610688e-01
         alpha: [ 1. ]
         index: [ 3 ]
      -
         sv_count: 1
         rho: -1.4003217234274354e-01
         alpha: [ 1. ]
         index: [ 4 ]
      -
         sv_count: 1
         rho: -4.1748602754012452e-02
         alpha: [ 1. ]
         index: [ 5 ]
      -
         sv_count: 1
         rho: -1.2579083829097590e+00
         alpha: [ 1. ]
         index: [ 6 ]
      -
         sv_count: 1
         rho: -2.5801316608017910e-01
         alpha: [ 1. ]
         index: [ 7 ]
      -
         sv_count: 1
         rho: 5.8513293990038205e-02
         alpha: [ 1. ]
         index: [ 8 ]
      -
         sv_count: 1
         rho: -2.0888834540797441e-01
         alpha: [ 1. ]
         index: [ 9 ]
      -
         sv_count: 1
         rho: -3.5596671274641764e-02
         alpha: [ 1. ]
         index: [ 10 ]
      -
         sv_count: 1
         rho: -1.1233704234058912e-01
         alpha: [ 1. ]
         index: [ 11 ]
      -
         sv_count: 1
         rho: 5.7899782158394131e-01
         alpha: [ 1. ]
         index: [ 12 ]
      -
         sv_count: 1
         rho: 1.3422009003257299e-01
         alpha: [ 1. ]
         index: [ 13 ]
      -
         sv_count: 1
         rho: 1.6165603246528157e-01
         alpha: [ 1. ]
         index: [ 14 ]
      -
         sv_count: 1
         rho: -1.7717630882340157e-01
         alpha: [ 1. ]
         index: [ 15 ]
      -
         sv_count: 1
         rho: 3.0932744102808118e-01
         alpha: [ 1. ]
         index: [ 16 ]
      -
         sv_count: 1
         rho: 6.2867815380824099e-01
         alpha: [ 1. ]
         index: [ 17 ]
      -
         sv_count: 1
         rho: -1.2798588656220769e-01
         alpha: [ 1. ]
         index: [ 18 ]
      -
         sv_count: 1
         rho: -4.6385747480181505e-01
         alpha: [ 1. ]
         index: [ 19 ]
      -
         sv_count: 1
         rho: 8.3800700569727174e-02
         alpha: [ 1. ]
         index: [ 20 ]
      -
         sv_count: 1
         rho: -2.9315337634993116e-01
         alpha: [ 1. ]
         index: [ 21 ]
      -
         sv_count: 1
         rho: -5.3816271526489345e-01
         alpha: [ 1. ]
         index: [ 22 ]
      -
         sv_count: 1
         rho: 4.5007968837511120e-01
         alpha: [ 1. ]
         index: [ 23 ]
      -
         sv_count: 1
         rho: -6.5881498180833842e-01
         alpha: [ 1. ]
         index: [ 24 ]
      -
         sv_count: 1
         rho: -1.0522305806962082e-01
         alpha: [ 1. ]
         index: [ 25 ]
      -
         sv_count: 1
         rho: 3.1764778180538483e-01
         alpha: [ 1. ]
         index: [ 26 ]
      -
         sv_count: 1
         rho: -4.9125381223871552e-03
         alpha: [ 1. ]
         index: [ 27 ]
